Android NDK: WARNING:F:\bike-detection\bike-detection\jni\Android.mk:detection_based_tracker: non-system libraries in linker flags: -lopencv_java    
Android NDK:     This is likely to result in incorrect builds. Try using LOCAL_STATIC_LIBRARIES    
Android NDK:     or LOCAL_SHARED_LIBRARIES instead to list the library dependencies of the    
Android NDK:     current module    
md "F:\bike-detection\bike-detection\openCVSamplefacedetection\build\intermediates\ndkBuild\debug\lib\armeabi-v7a" >NUL 2>NUL || rem
G:/AndroidEnvironment/sdk_1427719283328/sdk/ndk-bundle/build//../prebuilt/windows-x86_64/bin/echo.exe [armeabi-v7a] "Gdbserver      ": "[arm-linux-androideabi] F:\bike-detection\bike-detection\openCVSamplefacedetection\build\intermediates\ndkBuild\debug\lib/armeabi-v7a/gdbserver"
copy /b/y "G:\AndroidEnvironment\sdk_1427719283328\sdk\ndk-bundle\build\\..\prebuilt\android-arm\gdbserver\gdbserver" "F:\bike-detection\bike-detection\openCVSamplefacedetection\build\intermediates\ndkBuild\debug\lib\armeabi-v7a\gdbserver" > NUL
G:/AndroidEnvironment/sdk_1427719283328/sdk/ndk-bundle/build//../prebuilt/windows-x86_64/bin/echo.exe [armeabi-v7a] "Gdbsetup       ": "F:\bike-detection\bike-detection\openCVSamplefacedetection\build\intermediates\ndkBuild\debug\lib/armeabi-v7a/gdb.setup"
G:/AndroidEnvironment/sdk_1427719283328/sdk/ndk-bundle/build//../prebuilt/windows-x86_64/bin/echo.exe "set solib-search-path F:/bike-detection/bike-detection/openCVSamplefacedetection/build/intermediates/ndkBuild/debug/obj/local/armeabi-v7a" > F:\bike-detection\bike-detection\openCVSamplefacedetection\build\intermediates\ndkBuild\debug\lib/armeabi-v7a/gdb.setup
G:/AndroidEnvironment/sdk_1427719283328/sdk/ndk-bundle/build//../prebuilt/windows-x86_64/bin/echo.exe "directory G:/AndroidEnvironment/sdk_1427719283328/sdk/ndk-bundle/build//../platforms/android-9/arch-arm/usr/include "../sdk/native/jni/include/opencv" "../sdk/native/jni/include" F:/bike-detection/bike-detection/jni G:/AndroidEnvironment/sdk_1427719283328/sdk/ndk-bundle/build//../sources/cxx-stl/gnu-libstdc++/4.9/include G:/AndroidEnvironment/sdk_1427719283328/sdk/ndk-bundle/build//../sources/cxx-stl/gnu-libstdc++/4.9/libs/armeabi-v7a/include G:/AndroidEnvironment/sdk_1427719283328/sdk/ndk-bundle/build//../sources/cxx-stl/gnu-libstdc++/4.9/include/backward" >> F:\bike-detection\bike-detection\openCVSamplefacedetection\build\intermediates\ndkBuild\debug\lib/armeabi-v7a/gdb.setup
md "F:\bike-detection\bike-detection\openCVSamplefacedetection\build\intermediates\ndkBuild\debug\obj\local\armeabi-v7a\objs-debug\detection_based_tracker" >NUL 2>NUL || rem
G:/AndroidEnvironment/sdk_1427719283328/sdk/ndk-bundle/build//../prebuilt/windows-x86_64/bin/echo.exe [armeabi-v7a] "Compile++ thumb": "detection_based_tracker <= DetectionBasedTracker_jni.cpp"
G:/AndroidEnvironment/sdk_1427719283328/sdk/ndk-bundle/build//../toolchains/llvm/prebuilt/windows-x86_64/bin/clang++.exe -MMD -MP -MF F:/bike-detection/bike-detection/openCVSamplefacedetection/build/intermediates/ndkBuild/debug/obj/local/armeabi-v7a/objs-debug/detection_based_tracker/DetectionBasedTracker_jni.o.d -gcc-toolchain G:/AndroidEnvironment/sdk_1427719283328/sdk/ndk-bundle/build//../toolchains/arm-linux-androideabi-4.9/prebuilt/windows-x86_64 -fpic -ffunction-sections -funwind-tables -fstack-protector-strong -Wno-invalid-command-line-argument -Wno-unused-command-line-argument -no-canonical-prefixes -fno-integrated-as -g -target armv7-none-linux-androideabi -march=armv7-a -mfloat-abi=softfp -mfpu=vfpv3-d16 -fno-exceptions -fno-rtti -mthumb -O0 -UNDEBUG -fno-limit-debug-info  -I"../sdk/native/jni/include/opencv" -I"../sdk/native/jni/include" -IF:/bike-detection/bike-detection/jni -IG:/AndroidEnvironment/sdk_1427719283328/sdk/ndk-bundle/build//../sources/cxx-stl/gnu-libstdc++/4.9/include -IG:/AndroidEnvironment/sdk_1427719283328/sdk/ndk-bundle/build//../sources/cxx-stl/gnu-libstdc++/4.9/libs/armeabi-v7a/include -IG:/AndroidEnvironment/sdk_1427719283328/sdk/ndk-bundle/build//../sources/cxx-stl/gnu-libstdc++/4.9/include/backward -IF:/bike-detection/bike-detection/jni -DANDROID -fPIC -DANDROID -fsigned-char -Wa,--noexecstack -Wformat -Werror=format-security    -frtti -fexceptions  -isystem G:/AndroidEnvironment/sdk_1427719283328/sdk/ndk-bundle/build//../platforms/android-9/arch-arm/usr/include -c  F:/bike-detection/bike-detection/jni/DetectionBasedTracker_jni.cpp -o F:/bike-detection/bike-detection/openCVSamplefacedetection/build/intermediates/ndkBuild/debug/obj/local/armeabi-v7a/objs-debug/detection_based_tracker/DetectionBasedTracker_jni.o 
G:/AndroidEnvironment/sdk_1427719283328/sdk/ndk-bundle/build//../prebuilt/windows-x86_64/bin/echo.exe [armeabi-v7a] "Compile++ thumb": "detection_based_tracker <= LatentSVMDetector_jni.cpp"
G:/AndroidEnvironment/sdk_1427719283328/sdk/ndk-bundle/build//../toolchains/llvm/prebuilt/windows-x86_64/bin/clang++.exe -MMD -MP -MF F:/bike-detection/bike-detection/openCVSamplefacedetection/build/intermediates/ndkBuild/debug/obj/local/armeabi-v7a/objs-debug/detection_based_tracker/LatentSVMDetector_jni.o.d -gcc-toolchain G:/AndroidEnvironment/sdk_1427719283328/sdk/ndk-bundle/build//../toolchains/arm-linux-androideabi-4.9/prebuilt/windows-x86_64 -fpic -ffunction-sections -funwind-tables -fstack-protector-strong -Wno-invalid-command-line-argument -Wno-unused-command-line-argument -no-canonical-prefixes -fno-integrated-as -g -target armv7-none-linux-androideabi -march=armv7-a -mfloat-abi=softfp -mfpu=vfpv3-d16 -fno-exceptions -fno-rtti -mthumb -O0 -UNDEBUG -fno-limit-debug-info  -I"../sdk/native/jni/include/opencv" -I"../sdk/native/jni/include" -IF:/bike-detection/bike-detection/jni -IG:/AndroidEnvironment/sdk_1427719283328/sdk/ndk-bundle/build//../sources/cxx-stl/gnu-libstdc++/4.9/include -IG:/AndroidEnvironment/sdk_1427719283328/sdk/ndk-bundle/build//../sources/cxx-stl/gnu-libstdc++/4.9/libs/armeabi-v7a/include -IG:/AndroidEnvironment/sdk_1427719283328/sdk/ndk-bundle/build//../sources/cxx-stl/gnu-libstdc++/4.9/include/backward -IF:/bike-detection/bike-detection/jni -DANDROID -fPIC -DANDROID -fsigned-char -Wa,--noexecstack -Wformat -Werror=format-security    -frtti -fexceptions  -isystem G:/AndroidEnvironment/sdk_1427719283328/sdk/ndk-bundle/build//../platforms/android-9/arch-arm/usr/include -c  F:/bike-detection/bike-detection/jni/LatentSVMDetector_jni.cpp -o F:/bike-detection/bike-detection/openCVSamplefacedetection/build/intermediates/ndkBuild/debug/obj/local/armeabi-v7a/objs-debug/detection_based_tracker/LatentSVMDetector_jni.o 
md "F:\bike-detection\bike-detection\openCVSamplefacedetection\build\intermediates\ndkBuild\debug\obj\local\armeabi-v7a" >NUL 2>NUL || rem
md "G:\AndroidEnvironment\sdk_1427719283328\sdk\ndk-bundle\build\\..\sources\cxx-stl\gnu-libstdc++\4.9\libs\armeabi-v7a" >NUL 2>NUL || rem
G:/AndroidEnvironment/sdk_1427719283328/sdk/ndk-bundle/build//../prebuilt/windows-x86_64/bin/echo.exe [armeabi-v7a] "SharedLibrary  ": "libdetection_based_tracker.so"
G:/AndroidEnvironment/sdk_1427719283328/sdk/ndk-bundle/build//../toolchains/llvm/prebuilt/windows-x86_64/bin/clang++.exe -Wl,-soname,libdetection_based_tracker.so -shared --sysroot=G:/AndroidEnvironment/sdk_1427719283328/sdk/ndk-bundle/build//../platforms/android-9/arch-arm F:/bike-detection/bike-detection/openCVSamplefacedetection/build/intermediates/ndkBuild/debug/obj/local/armeabi-v7a/objs-debug/detection_based_tracker/DetectionBasedTracker_jni.o F:/bike-detection/bike-detection/openCVSamplefacedetection/build/intermediates/ndkBuild/debug/obj/local/armeabi-v7a/objs-debug/detection_based_tracker/LatentSVMDetector_jni.o G:/AndroidEnvironment/sdk_1427719283328/sdk/ndk-bundle/build//../sources/cxx-stl/gnu-libstdc++/4.9/libs/armeabi-v7a/libgnustl_static.a -lgcc  -gcc-toolchain G:/AndroidEnvironment/sdk_1427719283328/sdk/ndk-bundle/build//../toolchains/arm-linux-androideabi-4.9/prebuilt/windows-x86_64 -no-canonical-prefixes -target armv7-none-linux-androideabi -Wl,--fix-cortex-a8  -Wl,--build-id -Wl,--no-undefined -Wl,-z,noexecstack -Wl,-z,relro -Wl,-z,now -Wl,--warn-shared-textrel -Wl,--fatal-warnings   -LG:/AndroidEnvironment/sdk_1427719283328/sdk/ndk-bundle/build//../platforms/android-9/arch-arm/usr/lib -L../sdk/native/jni/../libs/armeabi-v7a -lopencv_java -llog -ldl -lc -lm -o F:/bike-detection/bike-detection/openCVSamplefacedetection/build/intermediates/ndkBuild/debug/obj/local/armeabi-v7a/libdetection_based_tracker.so
G:/AndroidEnvironment/sdk_1427719283328/sdk/ndk-bundle/build//../prebuilt/windows-x86_64/bin/echo.exe [armeabi-v7a] "Install        ": "libdetection_based_tracker.so => F:\bike-detection\bike-detection\openCVSamplefacedetection\build\intermediates\ndkBuild\debug\lib/armeabi-v7a/libdetection_based_tracker.so"
copy /b/y "F:\bike-detection\bike-detection\openCVSamplefacedetection\build\intermediates\ndkBuild\debug\obj\local\armeabi-v7a\libdetection_based_tracker.so" "F:\bike-detection\bike-detection\openCVSamplefacedetection\build\intermediates\ndkBuild\debug\lib\armeabi-v7a\libdetection_based_tracker.so" > NUL
G:/AndroidEnvironment/sdk_1427719283328/sdk/ndk-bundle/build//../toolchains/arm-linux-androideabi-4.9/prebuilt/windows-x86_64/bin/arm-linux-androideabi-strip --strip-unneeded  F:\bike-detection\bike-detection\openCVSamplefacedetection\build\intermediates\ndkBuild\debug\lib/armeabi-v7a/libdetection_based_tracker.so
process_begin: CreateProcess(NULL, "", ...) failed.
