{
  "buildFiles": [
    "F:\\bike-detection\\bike-detection\\jni\\Android.mk",
    "F:\\bike-detection\\bike-detection\\jni\\Application.mk"
  ],
  "cleanCommands": [
    "G:\\AndroidEnvironment\\sdk_1427719283328\\sdk\\ndk-bundle\\ndk-build.cmd NDK_PROJECT_PATH\u003dnull APP_BUILD_SCRIPT\u003dF:\\bike-detection\\bike-detection\\jni\\Android.mk NDK_APPLICATION_MK\u003dF:\\bike-detection\\bike-detection\\jni\\Application.mk APP_ABI\u003darmeabi-v7a NDK_ALL_ABIS\u003darmeabi-v7a NDK_DEBUG\u003d0 APP_PLATFORM\u003dandroid-9 NDK_OUT\u003dF:/bike-detection/bike-detection/openCVSamplefacedetection/build/intermediates/ndkBuild/release/obj NDK_LIBS_OUT\u003dF:\\bike-detection\\bike-detection\\openCVSamplefacedetection\\build\\intermediates\\ndkBuild\\release\\lib clean"
  ],
  "libraries": {
    "detection_based_tracker-release-armeabi-v7a": {
      "buildCommand": "G:\\AndroidEnvironment\\sdk_1427719283328\\sdk\\ndk-bundle\\ndk-build.cmd NDK_PROJECT_PATH\u003dnull APP_BUILD_SCRIPT\u003dF:\\bike-detection\\bike-detection\\jni\\Android.mk NDK_APPLICATION_MK\u003dF:\\bike-detection\\bike-detection\\jni\\Application.mk APP_ABI\u003darmeabi-v7a NDK_ALL_ABIS\u003darmeabi-v7a NDK_DEBUG\u003d0 APP_PLATFORM\u003dandroid-9 NDK_OUT\u003dF:/bike-detection/bike-detection/openCVSamplefacedetection/build/intermediates/ndkBuild/release/obj NDK_LIBS_OUT\u003dF:\\bike-detection\\bike-detection\\openCVSamplefacedetection\\build\\intermediates\\ndkBuild\\release\\lib F:/bike-detection/bike-detection/openCVSamplefacedetection/build/intermediates/ndkBuild/release/obj/local/armeabi-v7a/libdetection_based_tracker.so",
      "toolchain": "toolchain-armeabi-v7a",
      "abi": "armeabi-v7a",
      "artifactName": "detection_based_tracker",
      "files": [
        {
          "src": "F:\\bike-detection\\bike-detection\\jni\\DetectionBasedTracker_jni.cpp",
          "flags": "\"-gcc-toolchain\" \"G:/AndroidEnvironment/sdk_1427719283328/sdk/ndk-bundle/build//../toolchains/arm-linux-androideabi-4.9/prebuilt/windows-x86_64\" \"-fpic\" \"-ffunction-sections\" \"-funwind-tables\" \"-fstack-protector-strong\" \"-Wno-invalid-command-line-argument\" \"-Wno-unused-command-line-argument\" \"-no-canonical-prefixes\" \"-fno-integrated-as\" \"-g\" \"-target\" \"armv7-none-linux-androideabi\" \"-march\u003darmv7-a\" \"-mfloat-abi\u003dsoftfp\" \"-mfpu\u003dvfpv3-d16\" \"-fno-exceptions\" \"-fno-rtti\" \"-mthumb\" \"-Os\" \"-DNDEBUG\" \"-I../sdk/native/jni/include/opencv\" \"-I../sdk/native/jni/include\" \"-IF:/bike-detection/bike-detection/jni\" \"-IG:/AndroidEnvironment/sdk_1427719283328/sdk/ndk-bundle/build//../sources/cxx-stl/gnu-libstdc++/4.9/include\" \"-IG:/AndroidEnvironment/sdk_1427719283328/sdk/ndk-bundle/build//../sources/cxx-stl/gnu-libstdc++/4.9/libs/armeabi-v7a/include\" \"-IG:/AndroidEnvironment/sdk_1427719283328/sdk/ndk-bundle/build//../sources/cxx-stl/gnu-libstdc++/4.9/include/backward\" \"-IF:/bike-detection/bike-detection/jni\" \"-DANDROID\" \"-fPIC\" \"-DANDROID\" \"-fsigned-char\" \"-Wa,--noexecstack\" \"-Wformat\" \"-Werror\u003dformat-security\" \"-frtti\" \"-fexceptions\" \"-isystem\" \"G:/AndroidEnvironment/sdk_1427719283328/sdk/ndk-bundle/build//../platforms/android-9/arch-arm/usr/include\""
        },
        {
          "src": "F:\\bike-detection\\bike-detection\\jni\\LatentSVMDetector_jni.cpp",
          "flags": "\"-gcc-toolchain\" \"G:/AndroidEnvironment/sdk_1427719283328/sdk/ndk-bundle/build//../toolchains/arm-linux-androideabi-4.9/prebuilt/windows-x86_64\" \"-fpic\" \"-ffunction-sections\" \"-funwind-tables\" \"-fstack-protector-strong\" \"-Wno-invalid-command-line-argument\" \"-Wno-unused-command-line-argument\" \"-no-canonical-prefixes\" \"-fno-integrated-as\" \"-g\" \"-target\" \"armv7-none-linux-androideabi\" \"-march\u003darmv7-a\" \"-mfloat-abi\u003dsoftfp\" \"-mfpu\u003dvfpv3-d16\" \"-fno-exceptions\" \"-fno-rtti\" \"-mthumb\" \"-Os\" \"-DNDEBUG\" \"-I../sdk/native/jni/include/opencv\" \"-I../sdk/native/jni/include\" \"-IF:/bike-detection/bike-detection/jni\" \"-IG:/AndroidEnvironment/sdk_1427719283328/sdk/ndk-bundle/build//../sources/cxx-stl/gnu-libstdc++/4.9/include\" \"-IG:/AndroidEnvironment/sdk_1427719283328/sdk/ndk-bundle/build//../sources/cxx-stl/gnu-libstdc++/4.9/libs/armeabi-v7a/include\" \"-IG:/AndroidEnvironment/sdk_1427719283328/sdk/ndk-bundle/build//../sources/cxx-stl/gnu-libstdc++/4.9/include/backward\" \"-IF:/bike-detection/bike-detection/jni\" \"-DANDROID\" \"-fPIC\" \"-DANDROID\" \"-fsigned-char\" \"-Wa,--noexecstack\" \"-Wformat\" \"-Werror\u003dformat-security\" \"-frtti\" \"-fexceptions\" \"-isystem\" \"G:/AndroidEnvironment/sdk_1427719283328/sdk/ndk-bundle/build//../platforms/android-9/arch-arm/usr/include\""
        }
      ],
      "output": "F:\\bike-detection\\bike-detection\\openCVSamplefacedetection\\build\\intermediates\\ndkBuild\\release\\obj\\local\\armeabi-v7a\\libdetection_based_tracker.so"
    }
  },
  "toolchains": {
    "toolchain-armeabi-v7a": {
      "cppCompilerExecutable": "G:\\AndroidEnvironment\\sdk_1427719283328\\sdk\\ndk-bundle\\build\\..\\toolchains\\llvm\\prebuilt\\windows-x86_64\\bin\\clang++.exe"
    }
  },
  "cFileExtensions": [],
  "cppFileExtensions": [
    "cpp"
  ]
}